network unknown {
}
variable jordtype {
  type discrete [ 9 ] { Jb_1_, JB_2, JB_3, JB_4, JB_5, JB_6, Jb_7, JB_8, JB_9 };
}
variable komm {
  type discrete [ 5 ] { state0, state1, state2, state3, state4 };
}
variable nedbarea {
  type discrete [ 3 ] { x1___375_, x2__375_500_, x3___500_ };
}
variable nmin {
  type discrete [ 6 ] { x0_15, x15_30, x30_45, x45_60, x60_75, x_75 };
}
variable aar_mod {
  type discrete [ 11 ] { x_25, x_20, x_15, x_10, x_5, x0, x5, x10, x15, x20, x25 };
}
variable forfrugt {
  type discrete [ 5 ] { Cereals, Cer_rotation, Beets, Clovergrass, Other };
}
variable potnmin {
  type discrete [ 8 ] { x0_15, x15_30, x30_45, x45_60, x60_75, x75_90, x90_105, x_105 };
}
variable jordn {
  type discrete [ 9 ] { x0_15, x15_30, x30_45, x45_60, x60_75, x75_90, x90_105, x105_120, x_120 };
}
variable pesticid {
  type discrete [ 2 ] { x_, x_2 };
}
variable exptgens {
  type discrete [ 6 ] { x_30, x30_40, x40_50, x50_60, x60_70, x_70 };
}
variable mod_nmin {
  type discrete [ 6 ] { x0_15, x15_30, x30_45, x45_60, x60_75, x_75 };
}
variable ngodnt {
  type discrete [ 10 ] { x_45, x45_60, x60_75, x75_90, x90_105, x105_120, x120_135, x135_150, x150_165, x_165 };
}
variable nopt {
  type discrete [ 6 ] { x_120, x120_135, x135_150, x150_165, x165_180, x_180 };
}
variable ngodnn {
  type discrete [ 10 ] { x_45, x45_60, x60_75, x75_90, x90_105, x105_120, x120_135, x135_150, x150_165, x_165 };
}
variable ngodn {
  type discrete [ 10 ] { x_45, x45_60, x60_75, x75_90, x90_105, x105_120, x120_135, x135_150, x150_165, x_165 };
}
variable nprot {
  type discrete [ 8 ] { x_40, x40_60, x60_80, x80_100, x100_120, x120_140, x140_160, x_160 };
}
variable saatid {
  type discrete [ 5 ] { x_26_3, x26_3_10_4, x11_4_20_4, x21_4_26_4, x_26_4 };
}
variable rokap {
  type discrete [ 7 ] { x37_5_62_5, x62_5_87_5, x87_5_112_5, x112_5_137_5, x137_5_162_5, x162_5_187_5, x187_5_212_5 };
}
variable dgv1059 {
  type discrete [ 6 ] { x_25, x25_40, x41_50, x51_60, x61_70, x_70 };
}
variable sort {
  type discrete [ 67 ] { Abelone, Alexis, Alis, Amber, Ariel, Baracuda, Baronesse, Bartok, Blenheim, Brewster, Caminant, Canut, Caruso, Chariot, Collie, Cooper, Cork, Delibes, Derkado, Digger, Etna, Evelyn, Give, Goldie, G_363ta, Heron, Jarek, Jill, Korinna, Krona, Lamba, Lenka, Limbo, Loma, Lysimax, Maresi, Marielle, Marina, Maud, Meltan, Mentor, Mie, Miralix, Nevada, Optic, Peel, Polygena, Portia, Princesse, Prisma, Ragtime, Reggae, Rima, Saxo, Segu, Sehila, Selim, Semal, Senor, Shamu, Teal, Texane, Tofta, Trebon, Vintage, x_321rja, andre };
}
variable srtprot {
  type discrete [ 9 ] { x1, x2, x3, x4, x5, x6, x7, x8, x9 };
}
variable nplac {
  type discrete [ 3 ] { Top_dressed, worked_in_solil, Placed };
}
variable dg25 {
  type discrete [ 7 ] { x_22_5, x11_5_27_5, x27_5_32_5, x32_5_37_5, x37_5_47_5, x47_5_57_5, x_57_5 };
}
variable ngtilg {
  type discrete [ 10 ] { x_45, x45_60, x60_75, x75_90, x90_105, x105_120, x120_135, x135_150, x150_165, x_165 };
}
variable ntilg {
  type discrete [ 10 ] { x_75, x75_90, x90_105, x105_120, x120_135, x135_150, x150_165, x165_180, x180_195, x_195 };
}
variable saamng {
  type discrete [ 10 ] { x50_70, x70_90, x90_110, x110_130, x130_150, x150_170, x170_190, x190_210, x210_230, x230_250 };
}
variable tkvs {
  type discrete [ 9 ] { x30_35, x35_40, x40_42, x42_44, x44_46, x46_48, x48_50, x50_55, x55_60 };
}
variable saakern {
  type discrete [ 7 ] { x_175, x175_225, x225_275, x275_325, x325_375, x375_424, x_450 };
}
variable partigerm {
  type discrete [ 9 ] { x_80, x80_85, x85_90, x90_93, x93_95, x95_97, x97_98, x98_99, x99_100 };
}
variable frspdag {
  type discrete [ 8 ] { x_15, x15_17, x17_19, x19_21, x21_23, x23_25, x25_27, x_27 };
}
variable jordinf {
  type discrete [ 9 ] { x__80, x_80__85, x_94__90, x90__93, x93__95, x_95__97, x_97__98, x_98__99, x_99_1_00 };
}
variable markgrm {
  type discrete [ 10 ] { x_75, x75_80, x80_85, x85_90, x90_93, x94_95, x95_97, x97_98, x98__99, x99_100 };
}
variable antplnt {
  type discrete [ 7 ] { x_175, x175_225, x225_275, x275_325, x325_375, x375_425, x_425 };
}
variable sorttkv {
  type discrete [ 9 ] { x1, x2, x3, x4, x5, x6, x7, x8, x9 };
}
variable aks_m2 {
  type discrete [ 8 ] { x_350, x350_450, x450_550, x550_650, x650_750, x750_950, x950_1150, x_1150 };
}
variable keraks {
  type discrete [ 7 ] { x_13, x13_15, x15_17, x17_19, x19_21, x21_23, x_23 };
}
variable dgv5980 {
  type discrete [ 6 ] { x0_5, x5_10, x10_15, x15_25, x25_35, x_35 };
}
variable aks_vgt {
  type discrete [ 9 ] { x_550, x550_600, x600_650, x650_700, x700_750, x750_850, x850_950, x950_1050, x_1050 };
}
variable srtsize {
  type discrete [ 7 ] { x__1, x_1, x0, x1, x2, x3, x_3 };
}
variable ksort {
  type discrete [ 5 ] { x_85, x85_90, x90_95, x95_98, x_98 };
}
variable protein {
  type discrete [ 8 ] { x_9, x9_0_9_5, x9_5_10_0, x10_0_10_5, x10_5_11_0, x11_0_11_5, x11_5_12_0, x_12_0 };
}
variable udb {
  type discrete [ 9 ] { x_30, x30_40, x40_50, x50_55, x55_60, x60_65, x65_70, x70_80, x_80 };
}
variable spndx {
  type discrete [ 4 ] { x_7, x7_8, x8_9, x9_10 };
}
variable tkv {
  type discrete [ 8 ] { x_35, x35_40, x40_42_5, x42_5_45, x45_47_5, x47_5_50, x50_55, x_55 };
}
variable slt22 {
  type discrete [ 4 ] { x0_1, x1_2, x2_3, x3_5 };
}
variable s2225 {
  type discrete [ 4 ] { x0_1, x1_5, x5_10, x10_15 };
}
variable s2528 {
  type discrete [ 20 ] { x0_5, x5_10, x10_15, x15_20, x20_25, x25_30, x30_35, x35_40, x40_45, x45_50, x50_55, x55_60, x60_65, x65_70, x70_75, x75_80, x80_85, x85_90, x90_95, x95_100 };
}
variable bgbyg {
  type discrete [ 6 ] { x_3_0, x3_0_3_5, x3_5_4_0, x4_0_4_5, x4_5_5_0, x_5_0 };
}
probability ( jordtype | nprot ) {
  (x_40) 0.43548387, 0.06451613, 0.41935484, 0.01612903, 0.03225806, 0.01612903, 0.01612903, 0.00000000, 0.00000000;
  (x40_60) 0.35897436, 0.05128205, 0.27564103, 0.10256410, 0.04487179, 0.05769231, 0.01282051, 0.05128205, 0.04487179;
  (x60_80) 0.12571429, 0.10857143, 0.17714286, 0.13142857, 0.10857143, 0.12000000, 0.03428571, 0.09142857, 0.10285714;
  (x80_100) 0.05092593, 0.14814815, 0.04629630, 0.11111111, 0.14351852, 0.12500000, 0.12962963, 0.12962963, 0.11574074;
  (x100_120) 0.01554404, 0.13989637, 0.01554404, 0.11917098, 0.16580311, 0.12953368, 0.13471503, 0.15025907, 0.12953368;
  (x120_140) 0.00000000, 0.08585859, 0.00000000, 0.06060606, 0.22727273, 0.17171717, 0.14646465, 0.16666667, 0.14141414;
  (x140_160) 0.1111111, 0.1111111, 0.1111111, 0.1111111, 0.1111111, 0.1111111, 0.1111111, 0.1111111, 0.1111111;
  (x_160) 0.1111111, 0.1111111, 0.1111111, 0.1111111, 0.1111111, 0.1111111, 0.1111111, 0.1111111, 0.1111111;
}
probability ( komm ) {
  table 0.205, 0.193, 0.201, 0.206, 0.195;
}
probability ( nedbarea | nmin ) {
  (x0_15) 0.3157895, 0.3082707, 0.3759398;
  (x15_30) 0.2140351, 0.3298246, 0.4561404;
  (x30_45) 0.3286052, 0.3404255, 0.3309693;
  (x45_60) 0.6052632, 0.2697368, 0.1250000;
  (x60_75) 1.0, 0.0, 0.0;
  (x_75) 0.3333333, 0.3333333, 0.3333333;
}
probability ( nmin | jordtype ) {
  (Jb_1_) 0.5714286, 0.4285714, 0.0000000, 0.0000000, 0.0000000, 0.0000000;
  (JB_2) 0.00000000, 0.56074766, 0.38317757, 0.05607477, 0.00000000, 0.00000000;
  (JB_3) 0.5752212, 0.4247788, 0.0000000, 0.0000000, 0.0000000, 0.0000000;
  (JB_4) 0.00000000, 0.51515152, 0.46464646, 0.02020202, 0.00000000, 0.00000000;
  (JB_5) 0.000000000, 0.110294118, 0.610294118, 0.272058824, 0.007352941, 0.000000000;
  (JB_6) 0.00000000, 0.16239316, 0.58974359, 0.23076923, 0.01709402, 0.00000000;
  (Jb_7) 0.0000000, 0.1739130, 0.5869565, 0.2391304, 0.0000000, 0.0000000;
  (JB_8) 0.00000000, 0.10526316, 0.60526316, 0.26315789, 0.02631579, 0.00000000;
  (JB_9) 0.000000000, 0.126213592, 0.592233010, 0.271844660, 0.009708738, 0.000000000;
}
probability ( aar_mod | mod_nmin ) {
  (x0_15) 0.00000000, 0.00000000, 0.00000000, 0.00000000, 0.03111111, 0.03111111, 0.08000000, 0.16888889, 0.17333333, 0.17777778, 0.33777778;
  (x15_30) 0.00000000, 0.06938776, 0.04489796, 0.04897959, 0.10612245, 0.08163265, 0.09795918, 0.17142857, 0.20000000, 0.14693878, 0.03265306;
  (x30_45) 0.02904564, 0.10788382, 0.12033195, 0.12448133, 0.13278008, 0.14522822, 0.12863071, 0.06639004, 0.07883817, 0.06639004, 0.00000000;
  (x45_60) 0.124352332, 0.186528497, 0.253886010, 0.196891192, 0.082901554, 0.082901554, 0.067357513, 0.005181347, 0.000000000, 0.000000000, 0.000000000;
  (x60_75) 0.50602410, 0.16867470, 0.13253012, 0.15662651, 0.00000000, 0.02409639, 0.01204819, 0.00000000, 0.00000000, 0.00000000, 0.00000000;
  (x_75) 0.76923077, 0.07692308, 0.00000000, 0.15384615, 0.00000000, 0.00000000, 0.00000000, 0.00000000, 0.00000000, 0.00000000, 0.00000000;
}
probability ( forfrugt | potnmin ) {
  (x0_15) 0.61805556, 0.18055556, 0.05555556, 0.10416667, 0.04166667;
  (x15_30) 0.3644444, 0.2444444, 0.2044444, 0.1066667, 0.0800000;
  (x30_45) 0.1618497, 0.3121387, 0.1502890, 0.1271676, 0.2485549;
  (x45_60) 0.007246377, 0.376811594, 0.268115942, 0.188405797, 0.159420290;
  (x60_75) 0.0000000, 0.2291667, 0.3229167, 0.1770833, 0.2708333;
  (x75_90) 0.0000000, 0.1000000, 0.2833333, 0.2000000, 0.4166667;
  (x90_105) 0.00, 0.00, 0.24, 0.42, 0.34;
  (x_105) 0.0000000, 0.0000000, 0.2105263, 0.4824561, 0.3070175;
}
probability ( potnmin | jordn ) {
  (x0_15) 0.7021277, 0.2978723, 0.0000000, 0.0000000, 0.0000000, 0.0000000, 0.0000000, 0.0000000;
  (x15_30) 0.3521127, 0.4929577, 0.1549296, 0.0000000, 0.0000000, 0.0000000, 0.0000000, 0.0000000;
  (x30_45) 0.40384615, 0.37500000, 0.20192308, 0.01923077, 0.00000000, 0.00000000, 0.00000000, 0.00000000;
  (x45_60) 0.1796875, 0.4609375, 0.2656250, 0.0937500, 0.0000000, 0.0000000, 0.0000000, 0.0000000;
  (x60_75) 0.11888112, 0.31468531, 0.30769231, 0.22377622, 0.03496503, 0.00000000, 0.00000000, 0.00000000;
  (x75_90) 0.02586207, 0.20689655, 0.31896552, 0.23275862, 0.18965517, 0.02586207, 0.00000000, 0.00000000;
  (x90_105) 0.008695652, 0.078260870, 0.182608696, 0.356521739, 0.217391304, 0.113043478, 0.043478261, 0.000000000;
  (x105_120) 0.0000, 0.0000, 0.0625, 0.2875, 0.3000, 0.2125, 0.0625, 0.0750;
  (x_120) 0.000000000, 0.000000000, 0.000000000, 0.005102041, 0.102040816, 0.137755102, 0.204081633, 0.551020408;
}
probability ( jordn | ngodnn ) {
  (x_45) 0.00000000, 0.00000000, 0.00000000, 0.00000000, 0.02184466, 0.08737864, 0.22572816, 0.18932039, 0.47572816;
  (x45_60) 0.00000000, 0.00000000, 0.00000000, 0.07272727, 0.28181818, 0.46363636, 0.16363636, 0.01818182, 0.00000000;
  (x60_75) 0.00000000, 0.00000000, 0.06060606, 0.25000000, 0.44696970, 0.21212121, 0.03030303, 0.00000000, 0.00000000;
  (x75_90) 0.000000000, 0.068027211, 0.210884354, 0.448979592, 0.265306122, 0.006802721, 0.000000000, 0.000000000, 0.000000000;
  (x90_105) 0.08490566, 0.25471698, 0.42452830, 0.18867925, 0.04716981, 0.00000000, 0.00000000, 0.00000000, 0.00000000;
  (x105_120) 0.22413793, 0.41379310, 0.34482759, 0.01724138, 0.00000000, 0.00000000, 0.00000000, 0.00000000, 0.00000000;
  (x120_135) 0.6666667, 0.3333333, 0.0000000, 0.0000000, 0.0000000, 0.0000000, 0.0000000, 0.0000000, 0.0000000;
  (x135_150) 1.0, 0.0, 0.0, 0.0, 0.0, 0.0, 0.0, 0.0, 0.0;
  (x150_165) 0.1111111, 0.1111111, 0.1111111, 0.1111111, 0.1111111, 0.1111111, 0.1111111, 0.1111111, 0.1111111;
  (x_165) 0.1111111, 0.1111111, 0.1111111, 0.1111111, 0.1111111, 0.1111111, 0.1111111, 0.1111111, 0.1111111;
}
probability ( pesticid ) {
  table 0.0, 1.0;
}
probability ( exptgens | jordtype ) {
  (Jb_1_) 0.033613445, 0.487394958, 0.470588235, 0.008403361, 0.000000000, 0.000000000;
  (JB_2) 0.01869159, 0.54205607, 0.41121495, 0.02803738, 0.00000000, 0.00000000;
  (JB_3) 0.017699115, 0.663716814, 0.309734513, 0.008849558, 0.000000000, 0.000000000;
  (JB_4) 0.0000000, 0.2121212, 0.6666667, 0.1212121, 0.0000000, 0.0000000;
  (JB_5) 0.00000000, 0.05882353, 0.59558824, 0.34558824, 0.00000000, 0.00000000;
  (JB_6) 0.0000000, 0.1025641, 0.5470085, 0.3504274, 0.0000000, 0.0000000;
  (Jb_7) 0.0000000, 0.0000000, 0.1304348, 0.7500000, 0.1195652, 0.0000000;
  (JB_8) 0.01754386, 0.23684211, 0.63157895, 0.11403509, 0.00000000, 0.00000000;
  (JB_9) 0.00000000, 0.31067961, 0.60194175, 0.08737864, 0.00000000, 0.00000000;
}
probability ( mod_nmin | nmin ) {
  (x0_15) 0.64661654, 0.30075188, 0.05263158, 0.00000000, 0.00000000, 0.00000000;
  (x15_30) 0.37192982, 0.24561404, 0.29824561, 0.08421053, 0.00000000, 0.00000000;
  (x30_45) 0.07801418, 0.30023641, 0.23167849, 0.29078014, 0.09929078, 0.00000000;
  (x45_60) 0.00000000, 0.05263158, 0.33552632, 0.29605263, 0.25000000, 0.06578947;
  (x60_75) 0.0000000, 0.0000000, 0.0000000, 0.1428571, 0.4285714, 0.4285714;
  (x_75) 0.1666667, 0.1666667, 0.1666667, 0.1666667, 0.1666667, 0.1666667;
}
probability ( ngodnt | mod_nmin ) {
  (x0_15) 0.000000000, 0.000000000, 0.004444444, 0.066666667, 0.164444444, 0.640000000, 0.115555556, 0.008888889, 0.000000000, 0.000000000;
  (x15_30) 0.000000000, 0.004081633, 0.020408163, 0.146938776, 0.587755102, 0.216326531, 0.020408163, 0.000000000, 0.004081633, 0.000000000;
  (x30_45) 0.00000000, 0.03319502, 0.13278008, 0.54771784, 0.26141079, 0.02489627, 0.00000000, 0.00000000, 0.00000000, 0.00000000;
  (x45_60) 0.04663212, 0.12953368, 0.49740933, 0.28497409, 0.04145078, 0.00000000, 0.00000000, 0.00000000, 0.00000000, 0.00000000;
  (x60_75) 0.14457831, 0.49397590, 0.28915663, 0.06024096, 0.00000000, 0.00000000, 0.01204819, 0.00000000, 0.00000000, 0.00000000;
  (x_75) 0.4615385, 0.5384615, 0.0000000, 0.0000000, 0.0000000, 0.0000000, 0.0000000, 0.0000000, 0.0000000, 0.0000000;
}
probability ( nopt | exptgens ) {
  (x_30) 1.0, 0.0, 0.0, 0.0, 0.0, 0.0;
  (x30_40) 0.17182131, 0.76975945, 0.05841924, 0.00000000, 0.00000000, 0.00000000;
  (x40_50) 0.01016260, 0.48373984, 0.49186992, 0.01422764, 0.00000000, 0.00000000;
  (x50_60) 0.00000000, 0.08163265, 0.72448980, 0.19387755, 0.00000000, 0.00000000;
  (x60_70) 0.00000000, 0.00000000, 0.27272727, 0.63636364, 0.09090909, 0.00000000;
  (x_70) 0.1666667, 0.1666667, 0.1666667, 0.1666667, 0.1666667, 0.1666667;
}
probability ( ngodnn | ngodn ) {
  (x_45) 0.990384615, 0.007211538, 0.002403846, 0.000000000, 0.000000000, 0.000000000, 0.000000000, 0.000000000, 0.000000000, 0.000000000;
  (x45_60) 0.00000000, 0.95535714, 0.01785714, 0.02678571, 0.00000000, 0.00000000, 0.00000000, 0.00000000, 0.00000000, 0.00000000;
  (x60_75) 0.00000000, 0.00000000, 0.91489362, 0.05673759, 0.02836879, 0.00000000, 0.00000000, 0.00000000, 0.00000000, 0.00000000;
  (x75_90) 0.00000000, 0.00000000, 0.00000000, 0.87741935, 0.08387097, 0.02580645, 0.01290323, 0.00000000, 0.00000000, 0.00000000;
  (x90_105) 0.00000000, 0.00000000, 0.00000000, 0.00000000, 0.78761062, 0.14159292, 0.07079646, 0.00000000, 0.00000000, 0.00000000;
  (x105_120) 0.00000000, 0.00000000, 0.00000000, 0.00000000, 0.00000000, 0.66666667, 0.28070175, 0.05263158, 0.00000000, 0.00000000;
  (x120_135) 0.0, 0.0, 0.0, 0.0, 0.0, 0.0, 0.8, 0.2, 0.0, 0.0;
  (x135_150) 0.0, 0.0, 0.0, 0.0, 0.0, 0.0, 0.0, 1.0, 0.0, 0.0;
  (x150_165) 0.1, 0.1, 0.1, 0.1, 0.1, 0.1, 0.1, 0.1, 0.1, 0.1;
  (x_165) 0.1, 0.1, 0.1, 0.1, 0.1, 0.1, 0.1, 0.1, 0.1, 0.1;
}
probability ( ngodn | ngtilg ) {
  (x_45) 0.81120332, 0.07883817, 0.03941909, 0.03526971, 0.02282158, 0.01244813, 0.00000000, 0.00000000, 0.00000000, 0.00000000;
  (x45_60) 0.16546763, 0.43884892, 0.18705036, 0.15827338, 0.05035971, 0.00000000, 0.00000000, 0.00000000, 0.00000000, 0.00000000;
  (x60_75) 0.01449275, 0.09420290, 0.57971014, 0.17391304, 0.11594203, 0.02173913, 0.00000000, 0.00000000, 0.00000000, 0.00000000;
  (x75_90) 0.00000000, 0.00000000, 0.11111111, 0.74747475, 0.11111111, 0.03030303, 0.00000000, 0.00000000, 0.00000000, 0.00000000;
  (x90_105) 0.00000000, 0.00000000, 0.06666667, 0.13333333, 0.65333333, 0.13333333, 0.01333333, 0.00000000, 0.00000000, 0.00000000;
  (x105_120) 0.000, 0.000, 0.000, 0.150, 0.200, 0.625, 0.025, 0.000, 0.000, 0.000;
  (x120_135) 0.00000000, 0.00000000, 0.00000000, 0.13333333, 0.40000000, 0.40000000, 0.06666667, 0.00000000, 0.00000000, 0.00000000;
  (x135_150) 0.0000000, 0.0000000, 0.0000000, 0.0000000, 0.3333333, 0.3333333, 0.1666667, 0.1666667, 0.0000000, 0.0000000;
  (x150_165) 0.0000000, 0.0000000, 0.0000000, 0.0000000, 0.6666667, 0.0000000, 0.3333333, 0.0000000, 0.0000000, 0.0000000;
  (x_165) 0.0000000, 0.0000000, 0.0000000, 0.0000000, 0.3333333, 0.6666667, 0.0000000, 0.0000000, 0.0000000, 0.0000000;
}
probability ( nprot | jordn ) {
  (x0_15) 1.0, 0.0, 0.0, 0.0, 0.0, 0.0, 0.0, 0.0;
  (x15_30) 0.2112676, 0.7887324, 0.0000000, 0.0000000, 0.0000000, 0.0000000, 0.0000000, 0.0000000;
  (x30_45) 0.00000000, 0.96153846, 0.03846154, 0.00000000, 0.00000000, 0.00000000, 0.00000000, 0.00000000;
  (x45_60) 0.0, 0.0, 1.0, 0.0, 0.0, 0.0, 0.0, 0.0;
  (x60_75) 0.0000000, 0.0000000, 0.3006993, 0.6993007, 0.0000000, 0.0000000, 0.0000000, 0.0000000;
  (x75_90) 0.0, 0.0, 0.0, 1.0, 0.0, 0.0, 0.0, 0.0;
  (x90_105) 0.0, 0.0, 0.0, 0.0, 1.0, 0.0, 0.0, 0.0;
  (x105_120) 0.000, 0.000, 0.000, 0.000, 0.975, 0.025, 0.000, 0.000;
  (x_120) 0.0, 0.0, 0.0, 0.0, 0.0, 1.0, 0.0, 0.0;
}
probability ( saatid | dgv1059 ) {
  (x_25) 0.07142857, 0.02380952, 0.16666667, 0.23809524, 0.50000000;
  (x25_40) 0.05645161, 0.17741935, 0.19354839, 0.25806452, 0.31451613;
  (x41_50) 0.14375, 0.11875, 0.15000, 0.19375, 0.39375;
  (x51_60) 0.1056911, 0.1409214, 0.2601626, 0.3333333, 0.1598916;
  (x61_70) 0.31538462, 0.41923077, 0.21923077, 0.04615385, 0.00000000;
  (x_70) 0.8222222, 0.1777778, 0.0000000, 0.0000000, 0.0000000;
}
probability ( rokap | jordtype ) {
  (Jb_1_) 0.554621849, 0.344537815, 0.092436975, 0.008403361, 0.000000000, 0.000000000, 0.000000000;
  (JB_2) 0.00000000, 0.04672897, 0.24299065, 0.56074766, 0.13084112, 0.01869159, 0.00000000;
  (JB_3) 0.03539823, 0.37168142, 0.47787611, 0.09734513, 0.01769912, 0.00000000, 0.00000000;
  (JB_4) 0.02020202, 0.09090909, 0.33333333, 0.45454545, 0.10101010, 0.00000000, 0.00000000;
  (JB_5) 0.00000000, 0.00000000, 0.02205882, 0.19117647, 0.52941176, 0.22058824, 0.03676471;
  (JB_6) 0.00000000, 0.00000000, 0.00000000, 0.03418803, 0.27350427, 0.41880342, 0.27350427;
  (Jb_7) 0.0000000, 0.0000000, 0.0000000, 0.0326087, 0.2065217, 0.5434783, 0.2173913;
  (JB_8) 0.00000000, 0.00000000, 0.00000000, 0.00000000, 0.06140351, 0.39473684, 0.54385965;
  (JB_9) 0.000000000, 0.000000000, 0.000000000, 0.009708738, 0.087378641, 0.388349515, 0.514563107;
}
probability ( dgv1059 | rokap ) {
  (x37_5_62_5) 0.18055556, 0.48611111, 0.16666667, 0.13888889, 0.02777778, 0.00000000;
  (x62_5_87_5) 0.14432990, 0.16494845, 0.26804124, 0.25773196, 0.15463918, 0.01030928;
  (x87_5_112_5) 0.08661417, 0.25984252, 0.16535433, 0.29921260, 0.17322835, 0.01574803;
  (x112_5_137_5) 0.01986755, 0.17218543, 0.20529801, 0.32450331, 0.23841060, 0.03973510;
  (x137_5_162_5) 0.006060606, 0.054545455, 0.206060606, 0.400000000, 0.290909091, 0.042424242;
  (x162_5_187_5) 0.00000000, 0.02314815, 0.10648148, 0.44907407, 0.33333333, 0.08796296;
  (x187_5_212_5) 0.00000000, 0.00000000, 0.07558140, 0.48837209, 0.37790698, 0.05813953;
}
probability ( sort ) {
  table 0.015, 0.021, 0.013, 0.020, 0.012, 0.017, 0.023, 0.012, 0.015, 0.021, 0.011, 0.024, 0.026, 0.008, 0.010, 0.012, 0.015, 0.015, 0.018, 0.013, 0.009, 0.016, 0.013, 0.017, 0.015, 0.011, 0.027, 0.017, 0.015, 0.014, 0.017, 0.008, 0.013, 0.012, 0.018, 0.012, 0.017, 0.010, 0.018, 0.012, 0.016, 0.007, 0.010, 0.015, 0.013, 0.006, 0.018, 0.021, 0.012, 0.008, 0.014, 0.020, 0.016, 0.011, 0.013, 0.020, 0.015, 0.019, 0.013, 0.017, 0.015, 0.013, 0.014, 0.016, 0.012, 0.019, 0.015;
}
probability ( srtprot ) {
  table 0.034, 0.180, 0.342, 0.271, 0.122, 0.041, 0.007, 0.001, 0.002;
}
probability ( nplac | ntilg ) {
  (x_75) 0.862069, 0.137931, 0.000000;
  (x75_90) 0.59375, 0.40625, 0.00000;
  (x90_105) 0.4025974, 0.4935065, 0.1038961;
  (x105_120) 0.3129252, 0.3741497, 0.3129252;
  (x120_135) 0.3189655, 0.2931034, 0.3879310;
  (x135_150) 0.2338308, 0.3233831, 0.4427861;
  (x150_165) 0.3355263, 0.3684211, 0.2960526;
  (x165_180) 0.3596491, 0.3684211, 0.2719298;
  (x180_195) 0.8333333, 0.1666667, 0.0000000;
  (x_195) 0.75, 0.00, 0.25;
}
probability ( dg25 ) {
  table 0.514, 0.135, 0.095, 0.091, 0.082, 0.042, 0.041;
}
probability ( ngtilg ) {
  table 0.482, 0.139, 0.138, 0.099, 0.075, 0.040, 0.015, 0.006, 0.003, 0.003;
}
probability ( ntilg | jordn ) {
  (x0_15) 0.21276596, 0.10638298, 0.14893617, 0.29787234, 0.12765957, 0.04255319, 0.02127660, 0.04255319, 0.00000000, 0.00000000;
  (x15_30) 0.12676056, 0.05633803, 0.09859155, 0.26760563, 0.18309859, 0.16901408, 0.07042254, 0.02816901, 0.00000000, 0.00000000;
  (x30_45) 0.096153846, 0.038461538, 0.163461538, 0.153846154, 0.298076923, 0.153846154, 0.067307692, 0.000000000, 0.009615385, 0.019230769;
  (x45_60) 0.0000000, 0.1484375, 0.1171875, 0.2109375, 0.2187500, 0.2343750, 0.0312500, 0.0312500, 0.0078125, 0.0000000;
  (x60_75) 0.000000000, 0.000000000, 0.216783217, 0.097902098, 0.293706294, 0.258741259, 0.090909091, 0.034965035, 0.000000000, 0.006993007;
  (x75_90) 0.00000000, 0.00000000, 0.00000000, 0.49137931, 0.17241379, 0.19827586, 0.12068966, 0.01724138, 0.00000000, 0.00000000;
  (x90_105) 0.00000000, 0.00000000, 0.00000000, 0.00000000, 0.80000000, 0.06086957, 0.10434783, 0.03478261, 0.00000000, 0.00000000;
  (x105_120) 0.000, 0.000, 0.000, 0.000, 0.000, 0.925, 0.025, 0.050, 0.000, 0.000;
  (x_120) 0.000000000, 0.000000000, 0.000000000, 0.000000000, 0.000000000, 0.000000000, 0.479591837, 0.464285714, 0.051020408, 0.005102041;
}
probability ( saamng ) {
  table 0.120, 0.099, 0.088, 0.107, 0.109, 0.093, 0.106, 0.086, 0.089, 0.103;
}
probability ( tkvs | saakern ) {
  (x_175) 0.00000000, 0.08074534, 0.07453416, 0.09937888, 0.04347826, 0.17391304, 0.13043478, 0.18633540, 0.21118012;
  (x175_225) 0.10434783, 0.06956522, 0.07826087, 0.11304348, 0.22608696, 0.12173913, 0.12173913, 0.08695652, 0.07826087;
  (x225_275) 0.08108108, 0.06306306, 0.07207207, 0.09009009, 0.10810811, 0.13513514, 0.09009009, 0.26126126, 0.09909910;
  (x275_325) 0.05263158, 0.07017544, 0.11403509, 0.14035088, 0.08771930, 0.13157895, 0.07894737, 0.10526316, 0.21929825;
  (x325_375) 0.09174312, 0.13761468, 0.06422018, 0.20183486, 0.11009174, 0.10091743, 0.14678899, 0.08256881, 0.06422018;
  (x375_424) 0.00000000, 0.00000000, 0.08108108, 0.09909910, 0.13513514, 0.13513514, 0.15315315, 0.20720721, 0.18918919;
  (x_450) 0.28673835, 0.14695341, 0.12903226, 0.08960573, 0.10752688, 0.11111111, 0.07885305, 0.05017921, 0.00000000;
}
probability ( saakern | saamng ) {
  (x50_70) 0.9, 0.1, 0.0, 0.0, 0.0, 0.0, 0.0;
  (x70_90) 0.44444444, 0.46464646, 0.09090909, 0.00000000, 0.00000000, 0.00000000, 0.00000000;
  (x90_110) 0.10227273, 0.54545455, 0.28409091, 0.06818182, 0.00000000, 0.00000000, 0.00000000;
  (x110_130) 0.00000000, 0.08411215, 0.47663551, 0.34579439, 0.09345794, 0.00000000, 0.00000000;
  (x130_150) 0.0000000, 0.0000000, 0.2385321, 0.3119266, 0.2844037, 0.0000000, 0.1651376;
  (x150_170) 0.00000000, 0.00000000, 0.00000000, 0.25806452, 0.45161290, 0.09677419, 0.19354839;
  (x170_190) 0.0000000, 0.0000000, 0.0000000, 0.1226415, 0.1792453, 0.3867925, 0.3113208;
  (x190_210) 0.00000000, 0.00000000, 0.00000000, 0.00000000, 0.08139535, 0.34883721, 0.56976744;
  (x210_230) 0.0000000, 0.0000000, 0.0000000, 0.0000000, 0.0000000, 0.2247191, 0.7752809;
  (x230_250) 0.0000000, 0.0000000, 0.0000000, 0.0000000, 0.0000000, 0.1067961, 0.8932039;
}
probability ( partigerm ) {
  table 0.114, 0.109, 0.103, 0.101, 0.097, 0.122, 0.110, 0.118, 0.126;
}
probability ( frspdag | saatid ) {
  (x_26_3) 0.02617801, 0.06806283, 0.12565445, 0.23560209, 0.25654450, 0.16230366, 0.09947644, 0.02617801;
  (x26_3_10_4) 0.132701422, 0.180094787, 0.241706161, 0.227488152, 0.123222749, 0.075829384, 0.009478673, 0.009478673;
  (x11_4_20_4) 0.610576923, 0.197115385, 0.096153846, 0.048076923, 0.038461538, 0.004807692, 0.004807692, 0.000000000;
  (x21_4_26_4) 0.725961538, 0.115384615, 0.067307692, 0.072115385, 0.009615385, 0.000000000, 0.009615385, 0.000000000;
  (x_26_4) 0.758241758, 0.076923077, 0.082417582, 0.038461538, 0.021978022, 0.016483516, 0.005494505, 0.000000000;
}
probability ( jordinf ) {
  table 0.000, 0.000, 0.023, 0.064, 0.099, 0.147, 0.078, 0.089, 0.500;
}
probability ( markgrm | partigerm ) {
  (x_80) 0.377193, 0.622807, 0.000000, 0.000000, 0.000000, 0.000000, 0.000000, 0.000000, 0.000000, 0.000000;
  (x80_85) 0.03669725, 0.33027523, 0.63302752, 0.00000000, 0.00000000, 0.00000000, 0.00000000, 0.00000000, 0.00000000, 0.00000000;
  (x85_90) 0.00000000, 0.01941748, 0.26213592, 0.71844660, 0.00000000, 0.00000000, 0.00000000, 0.00000000, 0.00000000, 0.00000000;
  (x90_93) 0.00000000, 0.00000000, 0.08910891, 0.26732673, 0.64356436, 0.00000000, 0.00000000, 0.00000000, 0.00000000, 0.00000000;
  (x93_95) 0.00000000, 0.00000000, 0.01030928, 0.15463918, 0.31958763, 0.51546392, 0.00000000, 0.00000000, 0.00000000, 0.00000000;
  (x95_97) 0.00000000, 0.00000000, 0.01639344, 0.05737705, 0.25409836, 0.16393443, 0.50819672, 0.00000000, 0.00000000, 0.00000000;
  (x97_98) 0.00000000, 0.00000000, 0.00000000, 0.10909091, 0.03636364, 0.14545455, 0.29090909, 0.41818182, 0.00000000, 0.00000000;
  (x98_99) 0.00000000, 0.00000000, 0.00000000, 0.04237288, 0.16949153, 0.16949153, 0.08474576, 0.20338983, 0.33050847, 0.00000000;
  (x99_100) 0.00000000, 0.00000000, 0.00000000, 0.02380952, 0.06349206, 0.10317460, 0.17460317, 0.05555556, 0.22222222, 0.35714286;
}
probability ( antplnt | saakern ) {
  (x_175) 1.0, 0.0, 0.0, 0.0, 0.0, 0.0, 0.0;
  (x175_225) 0.2956522, 0.7043478, 0.0000000, 0.0000000, 0.0000000, 0.0000000, 0.0000000;
  (x225_275) 0.01801802, 0.38738739, 0.59459459, 0.00000000, 0.00000000, 0.00000000, 0.00000000;
  (x275_325) 0.00000000, 0.04385965, 0.50877193, 0.44736842, 0.00000000, 0.00000000, 0.00000000;
  (x325_375) 0.0000000, 0.0000000, 0.1743119, 0.4403670, 0.3853211, 0.0000000, 0.0000000;
  (x375_424) 0.0000000, 0.0000000, 0.0000000, 0.1801802, 0.3603604, 0.4594595, 0.0000000;
  (x_450) 0.00000000, 0.00000000, 0.00000000, 0.04301075, 0.20071685, 0.43727599, 0.31899642;
}
probability ( sorttkv ) {
  table 0.016, 0.022, 0.079, 0.167, 0.396, 0.235, 0.055, 0.025, 0.005;
}
probability ( aks_m2 | dgv1059 ) {
  (x_25) 0.30952381, 0.19047619, 0.19047619, 0.23809524, 0.04761905, 0.02380952, 0.00000000, 0.00000000;
  (x25_40) 0.088709677, 0.314516129, 0.362903226, 0.153225806, 0.056451613, 0.016129032, 0.008064516, 0.000000000;
  (x41_50) 0.05000, 0.15000, 0.24375, 0.28750, 0.11875, 0.14375, 0.00625, 0.00000;
  (x51_60) 0.021680217, 0.070460705, 0.208672087, 0.281842818, 0.203252033, 0.189701897, 0.021680217, 0.002710027;
  (x61_70) 0.003846154, 0.034615385, 0.076923077, 0.176923077, 0.253846154, 0.330769231, 0.096153846, 0.026923077;
  (x_70) 0.00000000, 0.00000000, 0.00000000, 0.06666667, 0.08888889, 0.26666667, 0.31111111, 0.26666667;
}
probability ( keraks | ksort ) {
  (x_85) 0.000000000, 0.008130081, 0.086720867, 0.252032520, 0.303523035, 0.227642276, 0.121951220;
  (x85_90) 0.00000000, 0.01265823, 0.22784810, 0.43037975, 0.24050633, 0.08860759, 0.00000000;
  (x90_95) 0.00000000, 0.04895105, 0.21678322, 0.33566434, 0.27972028, 0.10489510, 0.01398601;
  (x95_98) 0.00000000, 0.18713450, 0.23976608, 0.42690058, 0.12280702, 0.02339181, 0.00000000;
  (x_98) 0.05042017, 0.31092437, 0.32773109, 0.25630252, 0.03781513, 0.01680672, 0.00000000;
}
probability ( dgv5980 ) {
  table 0.170, 0.190, 0.148, 0.176, 0.169, 0.147;
}
probability ( aks_vgt | udb ) {
  (x_30) 0.00000000, 0.01754386, 0.10526316, 0.22807018, 0.26315789, 0.15789474, 0.12280702, 0.10526316, 0.00000000;
  (x30_40) 0.01515152, 0.01515152, 0.05303030, 0.07575758, 0.14393939, 0.26515152, 0.23484848, 0.14393939, 0.05303030;
  (x40_50) 0.004115226, 0.032921811, 0.024691358, 0.123456790, 0.102880658, 0.283950617, 0.312757202, 0.082304527, 0.032921811;
  (x50_55) 0.006896552, 0.000000000, 0.131034483, 0.000000000, 0.179310345, 0.000000000, 0.593103448, 0.089655172, 0.000000000;
  (x55_60) 0.0000000, 0.0000000, 0.0000000, 0.2741935, 0.0000000, 0.4596774, 0.0000000, 0.1048387, 0.1612903;
  (x60_65) 0.00000000, 0.04761905, 0.00000000, 0.00000000, 0.38095238, 0.00000000, 0.41269841, 0.15873016, 0.00000000;
  (x65_70) 0.02325581, 0.00000000, 0.15116279, 0.00000000, 0.00000000, 0.63953488, 0.00000000, 0.06976744, 0.11627907;
  (x70_80) 0.00000000, 0.13432836, 0.00000000, 0.16417910, 0.19402985, 0.01492537, 0.40298507, 0.08955224, 0.00000000;
  (x_80) 0.00, 0.00, 0.35, 0.10, 0.00, 0.20, 0.05, 0.25, 0.05;
}
probability ( srtsize ) {
  table 0.016, 0.075, 0.179, 0.258, 0.288, 0.156, 0.028;
}
probability ( ksort | aks_vgt ) {
  (x_550) 1.0, 0.0, 0.0, 0.0, 0.0;
  (x550_600) 0.96153846, 0.00000000, 0.03846154, 0.00000000, 0.00000000;
  (x600_650) 0.81034483, 0.08620690, 0.08620690, 0.01724138, 0.00000000;
  (x650_700) 0.70, 0.11, 0.10, 0.08, 0.01;
  (x700_750) 0.56849315, 0.11643836, 0.11643836, 0.17808219, 0.02054795;
  (x750_850) 0.3956522, 0.1173913, 0.2043478, 0.1608696, 0.1217391;
  (x850_950) 0.12500000, 0.06428571, 0.16428571, 0.28571429, 0.36071429;
  (x950_1050) 0.111111111, 0.009259259, 0.138888889, 0.157407407, 0.583333333;
  (x_1050) 0.00000000, 0.00000000, 0.04347826, 0.04347826, 0.91304348;
}
probability ( protein ) {
  table 0.084, 0.060, 0.095, 0.128, 0.158, 0.121, 0.104, 0.250;
}
probability ( udb | aks_m2 ) {
  (x_350) 0.8292683, 0.1707317, 0.0000000, 0.0000000, 0.0000000, 0.0000000, 0.0000000, 0.0000000, 0.0000000;
  (x350_450) 0.2169811, 0.6320755, 0.1509434, 0.0000000, 0.0000000, 0.0000000, 0.0000000, 0.0000000, 0.0000000;
  (x450_550) 0.000000000, 0.264550265, 0.555555556, 0.068783069, 0.105820106, 0.000000000, 0.000000000, 0.005291005, 0.000000000;
  (x550_650) 0.000000000, 0.026315789, 0.403508772, 0.377192982, 0.057017544, 0.087719298, 0.043859649, 0.004385965, 0.000000000;
  (x650_750) 0.00000000, 0.01156069, 0.13872832, 0.15028902, 0.32947977, 0.30057803, 0.03468208, 0.03468208, 0.00000000;
  (x750_950) 0.00000000, 0.00000000, 0.03092784, 0.09793814, 0.17525773, 0.24742268, 0.28350515, 0.13917526, 0.02577320;
  (x950_1150) 0.00000000, 0.00000000, 0.00000000, 0.02040816, 0.00000000, 0.12244898, 0.26530612, 0.46938776, 0.12244898;
  (x_1150) 0.00, 0.00, 0.00, 0.00, 0.00, 0.00, 0.10, 0.45, 0.45;
}
probability ( spndx ) {
  table 0.0, 0.0, 0.0, 1.0;
}
probability ( tkv | slt22 ) {
  (x0_1) 0.000000000, 0.052173913, 0.200000000, 0.269565217, 0.330434783, 0.113043478, 0.026086957, 0.008695652;
  (x1_2) 0.000000000, 0.063636364, 0.200000000, 0.281818182, 0.290909091, 0.154545455, 0.009090909, 0.000000000;
  (x2_3) 0.00000000, 0.12048193, 0.27710843, 0.33734940, 0.22891566, 0.03614458, 0.00000000, 0.00000000;
  (x3_5) 0.020231214, 0.271676301, 0.309248555, 0.264450867, 0.102601156, 0.028901734, 0.002890173, 0.000000000;
}
probability ( slt22 | ksort ) {
  (x_85) 0.0, 0.0, 0.0, 1.0;
  (x85_90) 0.0, 0.0, 0.0, 1.0;
  (x90_95) 0.00000000, 0.00000000, 0.01398601, 0.98601399;
  (x95_98) 0.00000000, 0.04678363, 0.38596491, 0.56725146;
  (x_98) 0.48319328, 0.42857143, 0.06302521, 0.02521008;
}
probability ( s2225 | ksort ) {
  (x_85) 0.01355014, 0.65040650, 0.33604336, 0.00000000;
  (x85_90) 0.4556962, 0.5443038, 0.0000000, 0.0000000;
  (x90_95) 0.92307692, 0.07692308, 0.00000000, 0.00000000;
  (x95_98) 1.0, 0.0, 0.0, 0.0;
  (x_98) 1.0, 0.0, 0.0, 0.0;
}
probability ( s2528 | s2225 ) {
  (x0_1) 0.8969072, 0.1030928, 0.0000000, 0.0000000, 0.0000000, 0.0000000, 0.0000000, 0.0000000, 0.0000000, 0.0000000, 0.0000000, 0.0000000, 0.0000000, 0.0000000, 0.0000000, 0.0000000, 0.0000000, 0.0000000, 0.0000000, 0.0000000;
  (x1_5) 0.006802721, 0.142857143, 0.295918367, 0.323129252, 0.227891156, 0.003401361, 0.000000000, 0.000000000, 0.000000000, 0.000000000, 0.000000000, 0.000000000, 0.000000000, 0.000000000, 0.000000000, 0.000000000, 0.000000000, 0.000000000, 0.000000000, 0.000000000;
  (x5_10) 0.00000000, 0.00000000, 0.03225806, 0.13709677, 0.46774194, 0.36290323, 0.00000000, 0.00000000, 0.00000000, 0.00000000, 0.00000000, 0.00000000, 0.00000000, 0.00000000, 0.00000000, 0.00000000, 0.00000000, 0.00000000, 0.00000000, 0.00000000;
  (x10_15) 0.05, 0.05, 0.05, 0.05, 0.05, 0.05, 0.05, 0.05, 0.05, 0.05, 0.05, 0.05, 0.05, 0.05, 0.05, 0.05, 0.05, 0.05, 0.05, 0.05;
}
probability ( bgbyg | dgv5980 ) {
  (x0_5) 0.00000000, 0.00000000, 0.04705882, 0.41176471, 0.44117647, 0.10000000;
  (x5_10) 0.00000000, 0.00000000, 0.17894737, 0.43684211, 0.33684211, 0.04736842;
  (x10_15) 0.000000000, 0.054054054, 0.337837838, 0.445945946, 0.155405405, 0.006756757;
  (x15_25) 0.01704545, 0.16477273, 0.53977273, 0.25000000, 0.02840909, 0.00000000;
  (x25_35) 0.10650888, 0.50295858, 0.35502959, 0.02958580, 0.00591716, 0.00000000;
  (x_35) 0.66666667, 0.28571429, 0.04761905, 0.00000000, 0.00000000, 0.00000000;
}
